FANN_FLO_2.1
num_layers=3
learning_rate=0.700000
connection_rate=1.000000
network_type=0
learning_momentum=0.000000
training_algorithm=2
train_error_function=1
train_stop_function=0
cascade_output_change_fraction=0.010000
quickprop_decay=-0.000100
quickprop_mu=1.750000
rprop_increase_factor=1.200000
rprop_decrease_factor=0.500000
rprop_delta_min=0.000000
rprop_delta_max=50.000000
rprop_delta_zero=0.100000
cascade_output_stagnation_epochs=12
cascade_candidate_change_fraction=0.010000
cascade_candidate_stagnation_epochs=12
cascade_max_out_epochs=150
cascade_min_out_epochs=50
cascade_max_cand_epochs=150
cascade_min_cand_epochs=50
cascade_num_candidate_groups=2
bit_fail_limit=3.49999999999999977796e-01
cascade_candidate_limit=1.00000000000000000000e+03
cascade_weight_multiplier=4.00000000000000022204e-01
cascade_activation_functions_count=10
cascade_activation_functions=3 5 7 8 10 11 14 15 16 17 
cascade_activation_steepnesses_count=4
cascade_activation_steepnesses=2.50000000000000000000e-01 5.00000000000000000000e-01 7.50000000000000000000e-01 1.00000000000000000000e+00 
layer_sizes=26 9 3 
scale_included=0
neurons (num_inputs, activation_function, activation_steepness)=(0, 0, 0.00000000000000000000e+00) (0, 0, 0.00000000000000000000e+00) (0, 0, 0.00000000000000000000e+00) (0, 0, 0.00000000000000000000e+00) (0, 0, 0.00000000000000000000e+00) (0, 0, 0.00000000000000000000e+00) (0, 0, 0.00000000000000000000e+00) (0, 0, 0.00000000000000000000e+00) (0, 0, 0.00000000000000000000e+00) (0, 0, 0.00000000000000000000e+00) (0, 0, 0.00000000000000000000e+00) (0, 0, 0.00000000000000000000e+00) (0, 0, 0.00000000000000000000e+00) (0, 0, 0.00000000000000000000e+00) (0, 0, 0.00000000000000000000e+00) (0, 0, 0.00000000000000000000e+00) (0, 0, 0.00000000000000000000e+00) (0, 0, 0.00000000000000000000e+00) (0, 0, 0.00000000000000000000e+00) (0, 0, 0.00000000000000000000e+00) (0, 0, 0.00000000000000000000e+00) (0, 0, 0.00000000000000000000e+00) (0, 0, 0.00000000000000000000e+00) (0, 0, 0.00000000000000000000e+00) (0, 0, 0.00000000000000000000e+00) (0, 0, 0.00000000000000000000e+00) (26, 4, 5.00000000000000000000e-01) (26, 4, 5.00000000000000000000e-01) (26, 4, 5.00000000000000000000e-01) (26, 4, 5.00000000000000000000e-01) (26, 4, 5.00000000000000000000e-01) (26, 4, 5.00000000000000000000e-01) (26, 4, 5.00000000000000000000e-01) (26, 4, 5.00000000000000000000e-01) (0, 0, 0.00000000000000000000e+00) (9, 4, 5.00000000000000000000e-01) (9, 4, 5.00000000000000000000e-01) (0, 0, 0.00000000000000000000e+00) 
connections (connected_to_neuron, weight)=(0, -3.18647642506382111627e-01) (1, 1.50000000000000000000e+03) (2, 1.57210416045201972768e-01) (3, 1.50000000000000000000e+03) (4, 1.50000000000000000000e+03) (5, 1.50000000000000000000e+03) (6, 1.50000000000000000000e+03) (7, 1.50000000000000000000e+03) (8, 1.50000000000000000000e+03) (9, 1.50000000000000000000e+03) (10, 1.50000000000000000000e+03) (11, 1.50000000000000000000e+03) (12, 1.50000000000000000000e+03) (13, -8.49134816922688939744e-02) (14, 9.15314172346673032843e-02) (15, 5.39781808205223936903e-02) (16, -2.35125751799825177812e+00) (17, 9.51429607771906438174e-01) (18, -5.77977794144578661123e-03) (19, 5.88195702446886459214e-01) (20, 1.68183595452121470437e+00) (21, 1.50000000000000000000e+03) (22, -8.09987870818022925867e-01) (23, 4.62034251422849884250e+00) (24, 5.05463883472165309563e-01) (25, -8.47547607220440313291e-01) (0, 1.50000000000000000000e+03) (1, 1.50000000000000000000e+03) (2, -6.56692276442966544892e+02) (3, 1.50000000000000000000e+03) (4, 1.50000000000000000000e+03) (5, 1.50000000000000000000e+03) (6, 1.50000000000000000000e+03) (7, 1.50000000000000000000e+03) (8, 1.50000000000000000000e+03) (9, 1.50000000000000000000e+03) (10, 1.50000000000000000000e+03) (11, 1.50000000000000000000e+03) (12, 1.50000000000000000000e+03) (13, -1.50000000000000000000e+03) (14, 1.50000000000000000000e+03) (15, 1.50000000000000000000e+03) (16, 1.50000000000000000000e+03) (17, 1.50000000000000000000e+03) (18, 1.50000000000000000000e+03) (19, -1.50000000000000000000e+03) (20, 1.50000000000000000000e+03) (21, 1.50000000000000000000e+03) (22, -1.50000000000000000000e+03) (23, 1.50000000000000000000e+03) (24, 1.50000000000000000000e+03) (25, -2.20698759325616435945e+01) (0, -1.50000000000000000000e+03) (1, 1.50000000000000000000e+03) (2, 1.44550068757170606659e+03) (3, 1.50000000000000000000e+03) (4, 1.50000000000000000000e+03) (5, 1.50000000000000000000e+03) (6, 1.50000000000000000000e+03) (7, 1.50000000000000000000e+03) (8, 1.50000000000000000000e+03) (9, 1.50000000000000000000e+03) (10, 1.50000000000000000000e+03) (11, 1.50000000000000000000e+03) (12, 1.50000000000000000000e+03) (13, 1.50000000000000000000e+03) (14, 1.48949389969808612477e+03) (15, -1.23170785248540596513e+03) (16, -1.50000000000000000000e+03) (17, -1.50000000000000000000e+03) (18, -1.50000000000000000000e+03) (19, 1.50000000000000000000e+03) (20, -1.50000000000000000000e+03) (21, 1.50000000000000000000e+03) (22, 1.50000000000000000000e+03) (23, -1.50000000000000000000e+03) (24, -1.50000000000000000000e+03) (25, 1.50000000000000000000e+03) (0, -2.66422331937144540870e-01) (1, 1.50000000000000000000e+03) (2, 6.90095607816666040124e-03) (3, 1.50000000000000000000e+03) (4, 1.50000000000000000000e+03) (5, 1.50000000000000000000e+03) (6, 1.50000000000000000000e+03) (7, 1.50000000000000000000e+03) (8, 1.50000000000000000000e+03) (9, 1.50000000000000000000e+03) (10, 1.50000000000000000000e+03) (11, 1.50000000000000000000e+03) (12, 1.50000000000000000000e+03) (13, -4.89741532893916919900e-01) (14, 2.03238682646892203365e-02) (15, 2.76179042245395023336e-01) (16, -1.03084827802894238857e+01) (17, 4.47570447587270869860e+00) (18, 7.16536310543056220723e-01) (19, 1.09306385145389821645e+01) (20, -2.76876342480335502216e+01) (21, 1.50000000000000000000e+03) (22, -8.34709990454500427859e+00) (23, -1.04746416353186386772e+01) (24, 5.00211803478119332311e+00) (25, 2.60603142385340724729e+00) (0, -4.35625299167387347588e-01) (1, 1.50000000000000000000e+03) (2, -9.45528977754000327094e-02) (3, 1.50000000000000000000e+03) (4, 1.50000000000000000000e+03) (5, 1.50000000000000000000e+03) (6, 1.50000000000000000000e+03) (7, 1.50000000000000000000e+03) (8, 1.50000000000000000000e+03) (9, 1.50000000000000000000e+03) (10, 1.50000000000000000000e+03) (11, 1.50000000000000000000e+03) (12, 1.50000000000000000000e+03) (13, 2.64406204165453396354e-03) (14, -2.89813880654452182828e-01) (15, 1.00446103175232906435e-01) (16, -1.27254128665818058153e+01) (17, 1.01239239968290228866e+00) (18, 5.27381905172901954693e-01) (19, -3.77966773347261275617e+00) (20, -1.72220866720290644025e+01) (21, 1.50000000000000000000e+03) (22, -1.90821028912049772686e+00) (23, -2.79586950986107085626e+00) (24, -5.88053084622429667050e-01) (25, -3.28247485435928798569e-01) (0, 1.49999996399998985908e+03) (1, 1.50000000000000000000e+03) (2, 1.50000000000000000000e+03) (3, 1.50000000000000000000e+03) (4, 1.50000000000000000000e+03) (5, 1.50000000000000000000e+03) (6, 1.50000000000000000000e+03) (7, 1.50000000000000000000e+03) (8, 1.50000000000000000000e+03) (9, 1.50000000000000000000e+03) (10, 1.50000000000000000000e+03) (11, 1.50000000000000000000e+03) (12, 1.50000000000000000000e+03) (13, -9.82967694787732057193e+02) (14, 1.50000000000000000000e+03) (15, -4.19666381114206330949e+02) (16, 1.49999998799999661969e+03) (17, -1.50000000000000000000e+03) (18, 1.50000000000000000000e+03) (19, 1.50000000000000000000e+03) (20, 1.50000000000000000000e+03) (21, 1.50000000000000000000e+03) (22, -1.50000000000000000000e+03) (23, 1.50000000000000000000e+03) (24, 1.49999996399998985908e+03) (25, -1.49817926136181881702e+03) (0, 1.50000000000000000000e+03) (1, 1.50000000000000000000e+03) (2, 1.50000000000000000000e+03) (3, 1.50000000000000000000e+03) (4, 1.50000000000000000000e+03) (5, 1.50000000000000000000e+03) (6, 1.50000000000000000000e+03) (7, 1.50000000000000000000e+03) (8, 1.50000000000000000000e+03) (9, 1.50000000000000000000e+03) (10, 1.50000000000000000000e+03) (11, 1.50000000000000000000e+03) (12, 1.50000000000000000000e+03) (13, -1.50000000000000000000e+03) (14, 1.50000000000000000000e+03) (15, 1.50000000000000000000e+03) (16, 1.50000000000000000000e+03) (17, -1.49982545778651592627e+03) (18, 1.50000000000000000000e+03) (19, -1.50000000000000000000e+03) (20, 1.50000000000000000000e+03) (21, 1.50000000000000000000e+03) (22, -1.50000000000000000000e+03) (23, 1.50000000000000000000e+03) (24, 1.50000000000000000000e+03) (25, -1.47948600330495628441e+03) (0, -3.38820205593931733645e+00) (1, 1.50000000000000000000e+03) (2, -1.34307762948344877607e+00) (3, 1.50000000000000000000e+03) (4, 1.50000000000000000000e+03) (5, 1.50000000000000000000e+03) (6, 1.50000000000000000000e+03) (7, 1.50000000000000000000e+03) (8, 1.50000000000000000000e+03) (9, 1.50000000000000000000e+03) (10, 1.50000000000000000000e+03) (11, 1.50000000000000000000e+03) (12, 1.50000000000000000000e+03) (13, 2.90345001046297991609e-02) (14, 1.71864254377790098838e-01) (15, 9.60430209517766642069e-02) (16, 8.95083723361187466594e+00) (17, 1.36985573817989045864e+01) (18, 8.85751564411068392779e-01) (19, -7.40618554646005833320e+00) (20, 1.78704383581193582131e+01) (21, 1.50000000000000000000e+03) (22, -7.41568955428299148025e+00) (23, -2.53282691146818059735e+01) (24, -1.29362187031523117042e+01) (25, 7.48487656812842487852e+01) (26, -8.13583077224607875699e-01) (27, 5.45630991384236985198e-01) (28, -1.12186498445336013674e+00) (29, -2.26977928723128208333e+00) (30, -1.00711523923539103542e+00) (31, 3.64131576662336642336e-01) (32, 1.77756113125473486081e-01) (33, -8.17209766836619833086e-01) (34, 9.43862824777648268260e-01) (26, -7.57655850990922630217e+00) (27, -1.98471401762567140059e-01) (28, 1.62372292209398610963e-01) (29, 6.22926748372885175087e+00) (30, 2.36882233028681721265e+00) (31, 1.50707887072651791627e+00) (32, 4.58305061900027704835e-02) (33, 2.70384642447248957353e+00) (34, -1.06969102781906388877e+00) 
