FANN_FLO_2.1
num_layers=6
learning_rate=0.700000
connection_rate=1.000000
network_type=0
learning_momentum=0.000000
training_algorithm=2
train_error_function=1
train_stop_function=0
cascade_output_change_fraction=0.010000
quickprop_decay=-0.000100
quickprop_mu=1.750000
rprop_increase_factor=1.200000
rprop_decrease_factor=0.500000
rprop_delta_min=0.000000
rprop_delta_max=50.000000
rprop_delta_zero=0.100000
cascade_output_stagnation_epochs=12
cascade_candidate_change_fraction=0.010000
cascade_candidate_stagnation_epochs=12
cascade_max_out_epochs=150
cascade_min_out_epochs=50
cascade_max_cand_epochs=150
cascade_min_cand_epochs=50
cascade_num_candidate_groups=2
bit_fail_limit=3.49999999999999977796e-01
cascade_candidate_limit=1.00000000000000000000e+03
cascade_weight_multiplier=4.00000000000000022204e-01
cascade_activation_functions_count=10
cascade_activation_functions=3 5 7 8 10 11 14 15 16 17 
cascade_activation_steepnesses_count=4
cascade_activation_steepnesses=2.50000000000000000000e-01 5.00000000000000000000e-01 7.50000000000000000000e-01 1.00000000000000000000e+00 
layer_sizes=26 4 8 9 6 2 
scale_included=0
neurons (num_inputs, activation_function, activation_steepness)=(0, 0, 0.00000000000000000000e+00) (0, 0, 0.00000000000000000000e+00) (0, 0, 0.00000000000000000000e+00) (0, 0, 0.00000000000000000000e+00) (0, 0, 0.00000000000000000000e+00) (0, 0, 0.00000000000000000000e+00) (0, 0, 0.00000000000000000000e+00) (0, 0, 0.00000000000000000000e+00) (0, 0, 0.00000000000000000000e+00) (0, 0, 0.00000000000000000000e+00) (0, 0, 0.00000000000000000000e+00) (0, 0, 0.00000000000000000000e+00) (0, 0, 0.00000000000000000000e+00) (0, 0, 0.00000000000000000000e+00) (0, 0, 0.00000000000000000000e+00) (0, 0, 0.00000000000000000000e+00) (0, 0, 0.00000000000000000000e+00) (0, 0, 0.00000000000000000000e+00) (0, 0, 0.00000000000000000000e+00) (0, 0, 0.00000000000000000000e+00) (0, 0, 0.00000000000000000000e+00) (0, 0, 0.00000000000000000000e+00) (0, 0, 0.00000000000000000000e+00) (0, 0, 0.00000000000000000000e+00) (0, 0, 0.00000000000000000000e+00) (0, 0, 0.00000000000000000000e+00) (26, 4, 5.00000000000000000000e-01) (26, 4, 5.00000000000000000000e-01) (26, 4, 5.00000000000000000000e-01) (0, 0, 0.00000000000000000000e+00) (4, 4, 5.00000000000000000000e-01) (4, 4, 5.00000000000000000000e-01) (4, 4, 5.00000000000000000000e-01) (4, 4, 5.00000000000000000000e-01) (4, 4, 5.00000000000000000000e-01) (4, 4, 5.00000000000000000000e-01) (4, 4, 5.00000000000000000000e-01) (0, 0, 0.00000000000000000000e+00) (8, 4, 5.00000000000000000000e-01) (8, 4, 5.00000000000000000000e-01) (8, 4, 5.00000000000000000000e-01) (8, 4, 5.00000000000000000000e-01) (8, 4, 5.00000000000000000000e-01) (8, 4, 5.00000000000000000000e-01) (8, 4, 5.00000000000000000000e-01) (8, 4, 5.00000000000000000000e-01) (0, 0, 0.00000000000000000000e+00) (9, 4, 5.00000000000000000000e-01) (9, 4, 5.00000000000000000000e-01) (9, 4, 5.00000000000000000000e-01) (9, 4, 5.00000000000000000000e-01) (9, 4, 5.00000000000000000000e-01) (0, 0, 0.00000000000000000000e+00) (6, 4, 5.00000000000000000000e-01) (0, 0, 0.00000000000000000000e+00) 
connections (connected_to_neuron, weight)=(0, -7.79330432415008544922e-02) (1, 3.50087955594062805176e-02) (2, 8.93517509102821350098e-02) (3, -4.38519790768623352051e-02) (4, -9.44256410002708435059e-02) (5, -9.63291302323341369629e-02) (6, -4.73907887935638427734e-02) (7, 4.89521101117134094238e-02) (8, 4.29678782820701599121e-02) (9, 4.80348542332649230957e-02) (10, -5.56342527270317077637e-02) (11, 6.97357729077339172363e-02) (12, -4.87285032868385314941e-02) (13, 7.47572854161262512207e-02) (14, -4.09856922924518585205e-02) (15, -2.36762091517448425293e-02) (16, -6.95120543241500854492e-02) (17, 1.43314003944396972656e-02) (18, 2.55489349365234375000e-03) (19, 1.36020779609680175781e-02) (20, -1.38241201639175415039e-02) (21, 9.75525602698326110840e-02) (22, -1.43677145242691040039e-02) (23, -3.39405685663223266602e-02) (24, 8.37783887982368469238e-02) (25, 5.87878450751304626465e-02) (0, -4.99689839780330657959e-02) (1, -3.16647440195083618164e-03) (2, -2.22752615809440612793e-02) (3, -7.16058313846588134766e-02) (4, -7.40553811192512512207e-02) (5, -2.08303332328796386719e-04) (6, 6.34029582142829895020e-02) (7, -8.47036316990852355957e-02) (8, 5.59397265315055847168e-02) (9, 6.89773336052894592285e-02) (10, -8.10327529907226562500e-02) (11, -9.14510712027549743652e-02) (12, 1.79294496774673461914e-02) (13, 6.19351342320442199707e-02) (14, 5.65837845206260681152e-02) (15, 6.22952058911323547363e-02) (16, 3.16709056496620178223e-02) (17, -9.21447128057479858398e-02) (18, 3.70524749159812927246e-02) (19, 9.06852111220359802246e-02) (20, -1.58209279179573059082e-02) (21, 6.75404146313667297363e-02) (22, 5.01661002635955810547e-03) (23, 8.67339596152305603027e-02) (24, -1.88574939966201782227e-02) (25, 9.11924913525581359863e-02) (0, 8.42865183949470520020e-02) (1, 6.67747929692268371582e-02) (2, -4.27480824291706085205e-02) (3, 6.80649057030677795410e-02) (4, 2.55626365542411804199e-02) (5, 7.28293508291244506836e-03) (6, -3.51015701889991760254e-02) (7, -9.67126339673995971680e-02) (8, 3.56770977377891540527e-02) (9, -9.15694981813430786133e-03) (10, 3.07907164096832275391e-03) (11, -9.19923186302185058594e-04) (12, 6.13941997289657592773e-03) (13, -4.09812107682228088379e-02) (14, -3.19425985217094421387e-02) (15, 2.51066759228706359863e-02) (16, -3.24322804808616638184e-02) (17, 8.59868451952934265137e-02) (18, -1.29582136869430541992e-02) (19, -7.58484899997711181641e-02) (20, 4.82820346951484680176e-02) (21, -8.12873095273971557617e-02) (22, -6.79932013154029846191e-02) (23, -1.46654844284057617188e-02) (24, -9.06020998954772949219e-02) (25, 1.61858797073364257812e-02) (26, -4.71250601112842559814e-02) (27, 1.44145116209983825684e-02) (28, 2.91983783245086669922e-03) (29, 3.40174511075019836426e-02) (26, 5.60699403285980224609e-03) (27, -1.27936378121376037598e-02) (28, 7.92227685451507568359e-04) (29, 6.28589168190956115723e-02) (26, -4.47287335991859436035e-02) (27, -7.36451372504234313965e-02) (28, -2.98581495881080627441e-02) (29, 2.01696977019309997559e-02) (26, -7.03577697277069091797e-02) (27, -9.41810458898544311523e-02) (28, -8.89872461557388305664e-02) (29, 3.27213034033775329590e-02) (26, 4.89902496337890625000e-03) (27, 1.71521753072738647461e-02) (28, 9.17400792241096496582e-02) (29, 7.29564353823661804199e-02) (26, -5.77411577105522155762e-02) (27, -4.06921915709972381592e-02) (28, 5.89432790875434875488e-02) (29, 2.93006375432014465332e-02) (26, -1.65406838059425354004e-02) (27, 7.22531229257583618164e-03) (28, 4.80133369565010070801e-02) (29, 1.54661163687705993652e-02) (30, 9.25598219037055969238e-02) (31, 5.74112311005592346191e-02) (32, -6.83480054140090942383e-02) (33, -5.45652322471141815186e-02) (34, -2.81742587685585021973e-02) (35, 3.45718339085578918457e-02) (36, 7.94522091746330261230e-02) (37, 7.74327442049980163574e-02) (30, -7.82218053936958312988e-02) (31, -1.97555571794509887695e-02) (32, 4.02916595339775085449e-02) (33, -2.29505375027656555176e-02) (34, 6.59930706024169921875e-03) (35, -8.95664915442466735840e-02) (36, 9.72191765904426574707e-02) (37, 3.62415388226509094238e-02) (30, -8.37475359439849853516e-02) (31, -9.17680785059928894043e-02) (32, -3.10371667146682739258e-02) (33, 2.11514979600906372070e-02) (34, 2.53841057419776916504e-02) (35, -3.92970740795135498047e-02) (36, -5.89208304882049560547e-03) (37, 6.76429346203804016113e-02) (30, 2.00107321143150329590e-02) (31, -4.69488091766834259033e-02) (32, -3.05642187595367431641e-03) (33, -9.65299531817436218262e-02) (34, 6.02765157818794250488e-02) (35, -5.50430938601493835449e-02) (36, 1.89361721277236938477e-02) (37, 5.28363361954689025879e-02) (30, -9.76318642497062683105e-02) (31, 5.05881533026695251465e-02) (32, 9.82710942625999450684e-02) (33, -2.58061140775680541992e-02) (34, -1.48400142788887023926e-02) (35, 7.77233168482780456543e-02) (36, -4.83733788132667541504e-02) (37, 6.93818181753158569336e-03) (30, -4.20322492718696594238e-02) (31, 9.19182971119880676270e-02) (32, 8.39876458048820495605e-02) (33, 6.45670518279075622559e-02) (34, -9.76482033729553222656e-02) (35, 8.12068060040473937988e-02) (36, 8.08596611022949218750e-04) (37, -8.13957303762435913086e-02) (30, 8.94387438893318176270e-02) (31, 6.97714313864707946777e-02) (32, 3.97557690739631652832e-02) (33, 1.48228406906127929688e-02) (34, -6.95256441831588745117e-02) (35, -6.61363154649734497070e-02) (36, -1.75342187285423278809e-02) (37, 5.04850819706916809082e-02) (30, -1.30851194262504577637e-02) (31, 7.94093683362007141113e-02) (32, 5.39551451802253723145e-02) (33, -5.28086125850677490234e-02) (34, -7.56337344646453857422e-02) (35, -2.71086916327476501465e-02) (36, -9.99722778797149658203e-02) (37, -7.32655972242355346680e-02) (38, -7.65205398201942443848e-02) (39, 9.82988253235816955566e-02) (40, 9.28282737731933593750e-04) (41, 8.63945484161376953125e-03) (42, 7.60221406817436218262e-02) (43, 5.25549128651618957520e-02) (44, -8.44223722815513610840e-02) (45, -6.60101175308227539062e-02) (46, 4.44731935858726501465e-02) (38, 9.95652750134468078613e-02) (39, 9.85569432377815246582e-02) (40, 4.68249991536140441895e-02) (41, 8.07720944285392761230e-02) (42, -6.34461641311645507812e-04) (43, 6.54292628169059753418e-02) (44, 7.02108219265937805176e-02) (45, -3.08630317449569702148e-02) (46, 5.18502295017242431641e-03) (38, -1.49663463234901428223e-02) (39, -3.88674437999725341797e-04) (40, 3.90487089753150939941e-02) (41, 6.74994364380836486816e-02) (42, -4.99035827815532684326e-02) (43, -7.40364119410514831543e-02) (44, 4.69088032841682434082e-02) (45, -9.59484502673149108887e-02) (46, -2.68450230360031127930e-02) (38, 7.12750628590583801270e-02) (39, -2.30571404099464416504e-02) (40, -2.68173068761825561523e-02) (41, 9.80094745755195617676e-02) (42, 4.22321259975433349609e-04) (43, -2.85184830427169799805e-02) (44, -1.06224417686462402344e-03) (45, -9.09382328391075134277e-02) (46, -5.24963475763797760010e-02) (38, -4.85073328018188476562e-02) (39, -7.53605961799621582031e-02) (40, -1.85064598917961120605e-02) (41, 9.59658697247505187988e-02) (42, -7.57953226566314697266e-02) (43, -1.99495106935501098633e-02) (44, 4.27908673882484436035e-02) (45, -9.50232371687889099121e-02) (46, 7.94160291552543640137e-02) (47, 8.22012126445770263672e-03) (48, 7.51875862479209899902e-02) (49, -5.14470115303993225098e-02) (50, -8.65948572754859924316e-02) (51, -3.97787652909755706787e-02) (52, 4.81643155217170715332e-02) 
